-4.915546555580881716e+00 -3.843778080736068303e-01 -1.506382731157622334e+00 -2.013707788929386844e+00 -2.147030420198411171e+00 2.184605308814901559e+00 -1.033678076329073292e+01 -2.522611468769202503e+00 1.845888024060090871e+01 -1.121358982729172737e+01 -1.846764982570026525e+00 -2.032839629195940301e+00 -1.346996301168145616e+00 1.347740065629888795e+00 1.595502207780425730e+00 1.881864474919917374e+00 -1.736361412962744488e+00
3.129527471806254901e+00 3.902912974203703644e+00 4.212041776222795519e+00 -1.723063731066578397e+00 -4.035071076035512405e+00 -2.307418196544197286e+01 9.633050869575303210e+00 -1.171496227066278317e+00 -2.299072492741838047e+01 2.895528840291585304e+00 -2.646028750313940581e+00 3.238589601301088194e+00 -1.213520707224513195e+01 1.037743354580484834e+00 -1.629215973735233192e+00 1.090097921129782144e+01 -6.751490241514388480e-01
1.727064344496275217e-01 -5.694713391627973742e+00 -1.960355750572342792e+00 2.913846241947179116e+00 4.697664510491401657e+00 2.035144671690858331e+01 -2.056118140951458173e+01 -3.202352466827505850e+00 -1.647652677956109102e+01 -4.408024849354734265e+00 -3.842037164692461149e-01 -5.315544999272859172e+00 1.183138099669543664e+01 -2.617969113286264360e+00 -5.777435155234761366e-01 -6.356228111197298247e+00 5.483916379513765982e+00
7.607391854770209072e-01 -4.777122899141102996e-01 -1.946109220307615351e+00 8.851470804381003088e-01 -5.080943486069368076e-01 -2.887556828614256665e-01 -3.750202199378328327e+00 -1.526846842813937899e+00 1.119245211871078727e+00 -2.040756271932772925e-01 -2.833671351172138753e+00 -1.583311731447833992e+00 -2.418661387175621069e+00 -4.351977188491559900e+00 2.486386849779052000e+01 3.518411024250429620e+00 -1.360983870475984325e+01
2.641563087130920806e+00 2.693500189230244146e+00 7.122646519365612328e+00 -1.105836658708779341e+00 -7.595364338472258836e-02 3.055661806874492292e+00 -1.312957568033835365e+01 -2.819858840536999089e+00 -1.260604588766630840e+00 -4.916051319450740031e+00 -2.250952848214792912e+00 3.340794538244336032e-01 -4.235713945805541059e+00 4.571569192549892691e+00 -2.743259454322630830e+01 -8.257272721100950008e-02 -2.215933952696398990e+01
-8.066482864958304688e+00 -2.381589295738525180e+00 -4.433716452585459322e+00 -5.589072838454314240e-01 -3.896870400081168029e+00 7.071279886181384144e-01 3.634012384691380770e+00 -5.559951789991502968e-01 -8.514066102020551030e-01 3.710936311011538979e-01 -7.569089516754203828e-01 -8.547917658731787327e-01 8.063209713535526291e+00 -3.478836115668777040e+00 -2.013383492445513845e+00 -1.020278450119038727e+00 2.186987383614531311e+01
-7.275225985097397263e+00 4.672542574413748540e+00 1.020868769330248726e-01 -5.729351578253732313e+00 -3.142533578805234207e+00 -5.828498246446410569e+00 -3.982754326187948113e+00 -1.400140890189248255e+00 1.167303713266384380e+00 -5.628772402180599599e+00 -8.490482953595988036e-01 5.040820672292297466e+00 7.461125002785876426e+00 2.537653760360163879e+00 -2.864505199672713331e+00 4.237741902252818882e+00 8.074782131284576892e-01
5.480743079979533583e+00 -8.713706172740588229e+00 1.174177768871834671e+00 -4.362204165047156024e-01 5.434598533077378946e+00 1.348237186180054614e+00 -5.012229861906552841e+00 -8.167240198658564099e-01 -1.492536966931547360e+00 -1.646964809055856449e+01 -1.109868679389324209e+00 -9.453903866035290093e+00 -1.226459061659168803e+01 1.894183517216764656e+01 3.978269498361493017e+00 3.648933955229161086e-01 -5.444601884947452675e+00
2.170959388339550600e+00 -4.106105027368093019e+00 4.563718777611721622e-01 3.783524884261369459e-01 -3.818675742692636987e+00 2.927668171065367364e+00 -2.272535599710396870e+00 -1.717117675077906247e+00 -3.701009261745914269e+00 1.735104150808270518e+01 -8.784251541200116531e-01 -5.730212369837734521e+00 5.180738431778978637e+00 -2.070736693649432780e+01 -3.732317287872634726e+00 7.985446081397330476e-01 -2.289342442365035701e+00
-7.294750924296128147e+00 5.658486865362004181e+00 -8.808874073219541412e-01 -4.728776827571288699e+00 -3.129813313404213204e+00 -6.813615313125347406e+00 -3.979904120687730362e+00 -2.396328569480050685e+00 1.159584365516453941e+00 -4.628116579203468639e+00 -1.866468197231037074e+00 5.030624000536648488e+00 6.458140923909808429e+00 2.530137423502906380e+00 -4.857729936639041846e+00 4.241642725675704106e+00 -1.762572065251985232e-01
9.028945122055886952e-01 -2.035030406827174954e+00 -5.195691431680612427e-01 2.164668448082990437e+01 2.514612609647694175e+00 1.137273041017281106e+00 -9.474407949775402571e+00 -1.997245850806098399e+00 -1.080162941198979265e+00 -2.969476699000117570e+00 -2.168862826046728642e+00 -3.665914979583233091e+00 -3.833028639734216370e+00 -3.847663648172810813e+00 1.025894511064162407e+00 2.790352139015882749e+00 -1.082032954532832658e+00
6.726937967977710819e+00 -5.798922188303347269e+00 2.127425507682844774e+00 -2.271245382921964051e+01 1.261051054935039550e-01 2.185503680888853051e+00 -4.798707740785855158e+00 -3.535847306713939098e+00 -1.197711673588370690e-01 3.869496044030994675e+00 -1.848293270616033768e+00 -7.511614493468270481e+00 -3.234453530345355876e+00 2.085064552783029601e+00 -7.595299655164895469e-01 2.390709530157836937e+00 -1.642568086765274327e+00
-8.259569928884230805e+00 4.680616954611416247e+00 1.184907336435470082e-01 -5.735009159494670605e+00 -3.154046228154742781e+00 -6.834348245269278088e+00 -4.991235463837393027e+00 -2.391340415390645457e+00 1.640622399640659645e-01 -5.610576443501780197e+00 -8.418255269936487650e-01 6.040265876765716690e+00 6.457629231048659157e+00 2.521256952674186813e+00 -4.845447324106920028e+00 4.248603022233191417e+00 -2.029851811911715653e-01
4.662565698019026650e-01 -4.273448535641242607e+00 -1.220127302436824879e+00 3.897011191091626969e+00 1.954065311366611368e+01 2.404222513529620464e+00 -8.447231978149332576e+00 -3.157796203991110051e+00 -1.580189694383583365e+00 -4.931479331601642535e+00 -1.389659683597334938e+00 -5.597267204644298388e+00 -3.405307198310688399e+00 -1.601460301358596183e+00 -3.195739337833516824e+00 -6.502024674077367949e-01 -2.550740733586933207e+00
6.162388739679834693e+00 -4.573479709840495566e+00 2.855277981055330372e+00 -3.963085486697173199e+00 -1.989885904313819864e+01 -1.074083426965175836e-01 -1.844603913079151614e+00 -1.349570388167913304e+00 4.131969784640094345e-01 4.825223712443555968e+00 3.676643122251935236e-01 -5.597682743894588420e+00 -1.662743941385249613e+00 -1.174859927759428935e+00 3.461852762940805128e+00 2.846029984539673485e+00 -1.182331760229313744e+00
